#ifndef MODEL_DATA_H
#define MODEL_DATA_H

// Arquitectura: 47 -> 32 -> 16 -> 1
const int INPUT_SIZE = 47;
const int HIDDEN1_SIZE = 32;
const int HIDDEN2_SIZE = 16;
const int OUTPUT_SIZE = 1;

const float W1[47][32] = {
    {-0.17751665f, 0.27050006f, -0.46577838f, -0.02606061f, -0.38728055f, 0.13507058f, -0.12692982f, -0.02515319f, -0.05938267f, 0.31212878f, 0.25181714f, 0.23946694f, 0.26050311f, -0.07735583f, -0.34788632f, -0.04732364f, -0.28609177f, 0.04718315f, 0.21754469f, 0.06168551f, -0.01357605f, -0.18311384f, -0.04053019f, -0.20397530f, 0.12457530f, 0.30198720f, -0.04804714f, 0.06227480f, 0.02282992f, 0.02383979f, 0.14620298f, 0.10867014f},
    {0.57965916f, 0.27176425f, 0.22534713f, -0.24699689f, 0.09011771f, 0.47976643f, 0.52454621f, 0.10982980f, -0.05145262f, -0.16858950f, 0.19616085f, -0.08815971f, -0.08642679f, -0.21089709f, -0.02908548f, 0.00233686f, -0.57572639f, -0.23442201f, 0.27881780f, -0.15867743f, 0.04783083f, 0.03605140f, -0.20791477f, -0.23781167f, 0.23788071f, 0.17490360f, 0.06359109f, -0.29137337f, -0.33398384f, 0.35242838f, -0.42019129f, 0.19887245f},
    {-0.19365270f, 0.05123588f, 0.35508808f, -0.07833422f, 0.41989830f, -0.26907080f, 0.08556920f, 0.07090399f, -0.24041288f, 0.16394119f, -0.00838807f, -0.45205918f, -0.32552478f, 0.27806661f, 0.13891372f, -0.24426553f, 0.07190904f, -0.39319059f, -0.13432993f, -0.22492464f, -0.05252803f, -0.31137833f, 0.15200175f, 0.20580165f, -0.81059617f, 0.11080337f, -0.15655771f, -0.23303877f, -0.10061862f, 0.03493782f, 0.16371796f, 0.07284591f},
    {-0.12464503f, -0.33560365f, 0.39408037f, 0.02046364f, -0.11036878f, -0.17416511f, -0.25414681f, -0.05422170f, 0.19466841f, 0.03610256f, -0.25690192f, -0.02411642f, 0.28412190f, -0.05384750f, -0.23736054f, -0.13257414f, -0.07016296f, 0.08821703f, -0.06003221f, 0.21752150f, 0.16200066f, 0.18761295f, -0.28261995f, -0.09523267f, 0.13960654f, 0.08264513f, -0.18741386f, -0.07140268f, -0.04476167f, -0.41409600f, 0.35392660f, 0.05275813f},
    {-0.12438735f, 0.24862316f, 0.09339334f, -0.20554832f, 0.20819172f, 0.63744253f, -0.26744190f, -0.06542443f, -0.16625266f, 0.50202876f, -0.01738195f, 0.72842932f, -0.56574076f, -0.05553895f, -0.33845454f, -0.23134957f, 0.15446495f, -0.46438804f, 0.77853674f, 0.64316189f, 0.28195086f, -0.00305879f, -0.29700693f, 0.09901318f, 0.03234461f, 0.49848074f, -0.22572394f, -0.53486151f, 0.25419527f, -0.08283442f, -0.23945180f, 0.40064237f},
    {-0.05502956f, 0.08787306f, 0.11483175f, -0.31221750f, -0.27790076f, 0.09103779f, -0.15951382f, -0.09067237f, 0.05862496f, 0.30118725f, -0.15561160f, -0.15141630f, -0.39692160f, -0.09559033f, 0.11016826f, 0.04318110f, -0.05684575f, 0.25017342f, 0.19751169f, -0.27118033f, -0.00772283f, 0.04898384f, 0.01123380f, 0.19574101f, -0.28495345f, 0.16488422f, 0.10455719f, 0.22536325f, -0.17306654f, -0.31458205f, -0.01599747f, 0.33896545f},
    {0.10867502f, 0.12245576f, 0.09813732f, 0.21723275f, -0.22581783f, 0.37466347f, 0.24598899f, 0.12685609f, -0.09299242f, -0.24070205f, 0.05333761f, -0.21355891f, 0.21902303f, -0.12707040f, -0.48815459f, -0.17684221f, -0.18570840f, 0.32412049f, -0.51448262f, -0.42062765f, 0.37137058f, 0.35567573f, 0.73625046f, -0.39526320f, 0.67071670f, 0.12775300f, 0.09069183f, 0.70292962f, 0.19614059f, 0.10590320f, 0.39239922f, 0.18836942f},
    {-0.12427551f, 0.35971367f, -0.19311848f, 0.00332836f, -0.13025013f, 0.52502990f, 0.22081968f, 0.01573393f, -0.47130015f, -0.03131936f, -0.26630124f, 0.10078127f, -0.10791387f, -0.07825707f, -0.61305213f, 0.18558408f, 0.49475941f, -0.28751427f, 0.11634170f, 0.33628100f, 0.12513767f, 0.02651997f, 0.01807342f, -0.22822046f, 0.09851287f, 0.53646487f, -0.07525818f, 0.12257660f, -0.08959102f, 0.30574626f, 0.08610754f, -0.06218091f},
    {-0.49566117f, -0.45262226f, 0.11465768f, -0.15677318f, 0.27004993f, 0.22467916f, 0.07528534f, 0.12768206f, -0.31554338f, -0.09339610f, -0.26574802f, 0.22401196f, -0.22097629f, -0.16927709f, 0.38719440f, 0.10690966f, 0.25412947f, -0.12238448f, 0.06636767f, 0.07098624f, -0.30658895f, 0.26199633f, -0.07567570f, -0.09219493f, 0.21761984f, 0.24150074f, -0.23410031f, 0.06988572f, 0.73340851f, -0.50953585f, -0.02254496f, -0.31078199f},
    {0.02130688f, -0.37775746f, 0.14450945f, -0.34667984f, 0.30423239f, 0.23712547f, 0.03226756f, -0.15845543f, 0.11634273f, -0.30953553f, 0.21955156f, -0.10019025f, -0.51752341f, 0.23206660f, 0.30022350f, -0.03647228f, 0.05695214f, -0.69001281f, 0.05668145f, 0.03307850f, 0.34920356f, -0.75791991f, -0.27537617f, -0.60984498f, 0.38158062f, -0.06525700f, 0.23637292f, -0.19869749f, -0.21312207f, -0.10322337f, -0.28426787f, -0.09929845f},
    {-0.20094457f, -0.20555316f, -0.60205740f, 0.02390174f, -0.07778049f, -0.18741937f, 0.07715727f, -0.15849315f, -0.02759398f, 0.18196124f, 0.34734970f, 0.31797197f, -0.34836695f, 0.11772951f, -0.50141668f, -0.06890128f, -0.09214991f, 0.25602975f, 0.04903829f, 0.12781630f, 0.32598507f, -0.25052184f, 0.37084755f, 0.13179494f, 0.19803545f, 0.19765124f, -0.23195566f, -0.06314340f, 0.12405825f, 0.31613460f, 0.08826689f, -0.00510070f},
    {-0.23415352f, -0.07959633f, -0.52354836f, 0.18800659f, -0.14745679f, -0.11464350f, 0.03526443f, 0.50247580f, -0.29700863f, 0.17981720f, 0.22797295f, 0.07561263f, -0.28185886f, -0.02574894f, 0.08811308f, -0.25395891f, 0.84073144f, -0.03604218f, 0.01550522f, -0.27929312f, 0.31952953f, 0.13576530f, 0.05535629f, 0.51075858f, -0.15836325f, 0.34088719f, -0.07733980f, 0.03541543f, 0.49458528f, 0.02259139f, -0.02887617f, -0.08866536f},
    {-0.25900081f, -0.40415394f, 0.28363615f, 0.32982826f, 0.06222746f, 0.05447178f, -0.00254299f, -0.24347436f, 0.02062181f, 0.08036467f, 0.09673058f, -0.00557476f, -0.04079167f, 0.28798440f, 0.03715364f, -0.27002120f, 0.05524601f, 0.18570016f, -0.09252301f, -0.14025354f, -0.03015846f, 0.26802441f, 0.31248724f, 0.09656173f, 0.15850422f, -0.29507765f, -0.17726444f, -0.30993268f, -0.19299410f, -0.38655084f, 0.05166957f, -0.02510242f},
    {-0.31671205f, 0.22836062f, -0.36295262f, -0.34889525f, -0.14280654f, 0.03581249f, -0.15224360f, -0.13068758f, 0.15174291f, 0.03596875f, 0.18223952f, 0.11478782f, 0.01768625f, 0.09328416f, -0.04412439f, 0.09890352f, 0.08169504f, 0.03741794f, -0.08993042f, -0.10211505f, -0.24799936f, -0.24597336f, -0.05385287f, -0.05005040f, -0.18877266f, 0.08307081f, -0.25982973f, 0.26931924f, -0.16503118f, 0.22253555f, 0.11593147f, 0.25327355f},
    {-0.13462472f, -0.13441980f, -0.12262876f, 0.07980527f, -0.03212505f, -0.13367283f, -0.26749146f, -0.14840373f, 0.17780009f, 0.29332489f, 0.11645547f, -0.18173033f, 0.27839065f, 0.31380823f, 0.01421359f, -0.18205477f, -0.37819803f, -0.04656307f, 0.20576468f, 0.06338668f, -0.00271546f, -0.20744257f, 0.08740339f, 0.17284672f, -0.15685579f, -0.09594038f, -0.12535524f, 0.22073598f, -0.01347898f, -0.16432580f, -0.18078969f, 0.14647757f},
    {-0.23290154f, 0.01274913f, -0.35151038f, -0.26880854f, -0.12130428f, -0.07846187f, -0.16974679f, -0.36676058f, 0.30874404f, 0.28336781f, 0.22364195f, 0.19371642f, -0.46972984f, 0.30020237f, 0.38258961f, 0.18898568f, -0.01356849f, -0.18634863f, 0.39096195f, 0.09627353f, -0.10015747f, -0.08753456f, -0.30766270f, 0.31118631f, -0.35051772f, 0.21596302f, -0.18633536f, 0.25112864f, 0.39554325f, -0.36396572f, -0.05295710f, -0.07989156f},
    {-0.07690574f, -0.13947518f, 0.78743994f, 0.47881928f, 0.06583294f, -0.03308088f, -0.33767223f, -0.26835990f, -0.29252243f, -0.33892909f, -0.13519286f, 0.00971754f, 0.44525912f, -0.39363119f, -0.28127918f, -0.23992150f, 0.02044477f, 0.30248484f, -0.05972266f, 0.00525591f, 0.41935098f, 0.05088693f, 0.20464540f, -0.24225880f, 0.58011192f, 0.14874880f, -0.22243433f, -0.18653804f, 0.06028788f, 0.27721015f, 0.56106126f, -0.22351801f},
    {0.22760822f, -0.44665152f, -0.22830483f, -0.38352621f, -0.23207811f, 0.18997686f, 0.14163381f, 0.32990661f, 0.42628369f, -0.37777862f, -0.33879584f, 0.25396046f, 0.40501016f, 0.01331089f, -0.43032148f, -0.15227158f, 0.14850655f, 0.20784743f, -0.58694035f, 0.37917924f, 0.02814754f, 0.22710693f, -0.19266613f, -0.05178887f, -0.09454416f, -0.08931621f, -0.20575449f, 0.07022545f, -0.15622000f, 0.15998192f, 0.33266735f, -0.70132178f},
    {0.50362068f, 0.39543256f, 0.48204693f, -0.93224627f, 0.10785890f, 0.21391332f, 0.68744254f, 0.77846336f, -0.18723387f, -0.71207219f, 0.09872206f, -0.70482457f, 0.04307388f, -0.19859944f, -0.72459465f, 0.32544625f, 0.02472192f, 0.71466571f, -0.25073281f, -0.61930043f, 0.19744174f, -0.02276223f, 0.18315819f, -0.59806222f, 0.64820951f, -0.44895479f, -0.08614320f, 0.60630757f, -0.56822366f, -0.40843621f, 0.60314047f, -0.20850700f},
    {-0.05187652f, 0.16459036f, 0.11709917f, 0.08750480f, 0.27792579f, -0.13070336f, 0.19773749f, 0.12429839f, 0.17938562f, -0.10408517f, -0.06818966f, 0.05747187f, 0.48642504f, 0.03364748f, -0.12625642f, 0.10536459f, -0.26576611f, -0.01111857f, -0.28992429f, -0.22374086f, 0.00487758f, 0.28149366f, 0.32360175f, -0.35309845f, 0.44055346f, 0.01574945f, -0.14928043f, 0.10226737f, -0.21875980f, -0.26094535f, 0.16433918f, -0.09959014f},
    {0.04799476f, 0.48558879f, 0.34763148f, -0.18057391f, 0.19239756f, 0.04756472f, -0.33008704f, -0.23334157f, 0.49731395f, 0.35876200f, 0.18298407f, -0.33857730f, -0.10810721f, -0.04240580f, 0.38684633f, -1.50208580f, -0.39144334f, 0.24421436f, 0.18095329f, -0.35991368f, -0.12756643f, -0.24255997f, 0.09703777f, 0.39858666f, -0.10255928f, -0.17868677f, 0.07365552f, -0.25611433f, 0.03090499f, -0.49091330f, 0.06365049f, -0.37692699f},
    {0.05260252f, 0.77026182f, -0.56247580f, -0.29603654f, -0.16381650f, 0.11077032f, 0.36372340f, -0.50697041f, 0.63821203f, 0.38701710f, -0.14314514f, -0.16694589f, -0.49793983f, 0.25543058f, -0.08847609f, -0.45142400f, 0.01824985f, -0.88589311f, 0.56866807f, -0.09766403f, -0.52246654f, -0.21905023f, 0.43666151f, 0.45464343f, -0.09356190f, 0.63926786f, -0.07837170f, 0.00396546f, 0.27827820f, 0.27940086f, -0.28978470f, 0.11440750f},
    {-0.46070611f, 0.10518421f, -0.01945029f, 0.22489774f, -0.03380596f, -0.12667097f, -0.22446920f, -0.50608176f, -0.10221836f, 0.52459949f, 0.00609222f, 0.52857250f, -0.22548400f, -0.22055393f, 0.06880763f, -0.69490105f, 0.17321773f, -0.25947383f, 0.21935469f, 0.27521208f, 0.01837590f, -0.34118247f, 0.22498088f, 0.38582408f, -0.27342564f, 0.33998188f, -0.09827853f, -0.34292397f, 0.08068599f, 0.30660960f, -0.29229087f, 0.30123770f},
    {0.15747038f, 0.42975625f, -0.03368525f, -0.59647632f, -0.20784740f, -0.36085129f, 0.32752842f, 0.24033824f, -0.18916383f, -0.30464342f, -0.58716327f, 0.14160267f, 0.23232946f, 0.14579611f, -0.06281473f, 0.95173991f, -0.47791401f, 0.28367576f, -0.29018655f, -0.06509235f, -0.34960184f, 0.31341574f, 0.36374161f, 0.14999378f, -0.01871315f, -0.21617895f, -0.22458391f, 0.56215978f, -0.39333531f, -0.43215233f, 0.13088165f, -0.61333358f},
    {0.01650080f, -0.64168030f, -0.27042595f, -0.15456276f, -0.84151787f, 0.57053900f, -0.07893245f, 0.43638754f, 0.30107278f, 0.24378164f, -0.31770143f, 0.20713048f, -0.11471722f, -0.02492904f, 0.35873392f, -0.02024765f, -0.27827266f, 0.02420237f, 0.40871498f, 0.03252141f, 0.33512881f, -0.29628792f, -0.44622263f, -0.32526878f, -0.24260579f, -0.31326869f, -0.06913365f, -0.29663524f, -0.11391015f, 0.02772002f, -0.57880372f, -0.19152325f},
    {0.09520663f, 0.23677708f, -0.06926956f, -0.75222147f, -0.17656562f, -0.10863681f, 0.06504682f, 0.37701684f, -0.69428807f, -0.55468613f, 0.48818600f, -0.84067672f, 0.03610316f, -0.09253820f, -0.49710009f, 0.58428001f, -0.12797868f, 0.49259415f, -0.47483060f, 0.11504868f, -0.19375865f, 0.70800197f, -0.42071816f, -0.27197379f, 0.39080489f, -0.17016371f, -0.10914307f, 0.03894121f, -0.58676052f, -0.21477838f, 0.35354254f, 0.07249282f},
    {-0.03967148f, -0.17912477f, -0.08565593f, -0.14095400f, 0.31490096f, 0.01588090f, -0.29119766f, 0.27482468f, 0.11540490f, 0.18131800f, -0.01691780f, 0.05236896f, 0.18314378f, -0.12065060f, 0.15000868f, 0.30430555f, -0.07273211f, 0.16335154f, -0.04644802f, -0.39149129f, 0.10996268f, -0.18261513f, -0.12832682f, -0.35538414f, -0.17806876f, 0.03217413f, 0.04716232f, 0.30592754f, -0.08809599f, -0.28370407f, -0.07592940f, -0.01830278f},
    {0.44992480f, 0.64919466f, -0.30248192f, 0.88327837f, 0.07143533f, 0.42634529f, 0.14427936f, -1.16966701f, -0.03882598f, 0.53339148f, -0.69107729f, 0.75259727f, -0.08615305f, 0.73391569f, 0.20247021f, -0.23909661f, 0.46910879f, -0.73779696f, 0.47193089f, 0.71690500f, -0.21818875f, -0.18540536f, -0.54548681f, -0.33609119f, -0.30752036f, 0.50982451f, 0.27437094f, -0.75283802f, 0.42614642f, 0.04057780f, -0.59430391f, 0.25857270f},
    {0.16221300f, 0.39856797f, -0.26671851f, 0.56522495f, -0.21104901f, 0.12417107f, 0.02309637f, -0.36400989f, -0.06566180f, 0.27965260f, -0.51166826f, 0.72330350f, -0.31714994f, 0.33336827f, 0.14150088f, -0.20141028f, 0.30520934f, -0.70197493f, 0.43704322f, 0.54357761f, 0.27860370f, -0.53458315f, -0.76824504f, -0.40975153f, -0.27060726f, 0.59692639f, 0.09984565f, -0.81130004f, 0.07358711f, 0.20574333f, -0.55034202f, 0.46338162f},
    {0.07828545f, 0.87109375f, -0.20548125f, 0.31793499f, -0.22511862f, 0.72376603f, 0.74097097f, -0.14753056f, -0.19160949f, 0.25749102f, -0.47439903f, 0.73049682f, -0.25629002f, 0.44743961f, 0.06915800f, -0.05270662f, 0.35508376f, -0.60105449f, 0.56113142f, 0.85219222f, 0.00211937f, -0.43108422f, -0.17499268f, -0.47562945f, -0.46396035f, 0.48807946f, -0.17516592f, -0.89679062f, 0.17098396f, 0.11409780f, -0.41955855f, 0.73124152f},
    {-0.00380551f, 0.58961618f, 0.13521089f, 0.23090987f, -0.36416543f, -0.01513416f, 0.36988416f, 0.25377408f, -0.52652645f, -0.44209498f, -0.10077239f, -0.18652524f, 0.62787735f, -0.27857310f, -0.43873802f, 0.38456991f, 0.14908423f, 0.36866844f, -0.22496516f, -0.28185746f, 0.56099743f, 0.20819387f, 0.77485693f, -0.31416866f, -0.02970244f, 0.21866593f, 0.22515407f, -0.23354462f, -0.04247508f, 0.01671897f, 0.50056136f, 0.46769613f},
    {-0.12054060f, 0.07188311f, -0.03224641f, -0.21360715f, 0.07884342f, -0.09246548f, -0.02426791f, -0.15353011f, 0.31583324f, 0.04036940f, -0.11285641f, -0.00485457f, -0.01149024f, -0.09503408f, 0.25924882f, -0.07500815f, -0.30899850f, 0.18541443f, -0.23749901f, -0.08854070f, -0.15020972f, 0.24722087f, -0.07944270f, 0.16829710f, 0.09533067f, -0.22675218f, 0.16388614f, -0.23763895f, -0.23595947f, -0.19204313f, 0.00800911f, 0.05520651f},
    {-0.03664944f, 0.07592341f, -0.20979548f, -0.07378365f, -0.22453345f, -0.44222993f, -0.06567463f, 0.03688125f, 0.12656902f, 0.07789331f, 0.10392957f, 0.07179657f, 0.19397205f, -0.13332078f, 0.17680037f, 0.02726353f, 0.13475199f, 0.03918700f, -0.05289024f, 0.05362367f, 0.15674716f, 0.13342561f, -0.21676393f, 0.28900552f, 0.00179117f, -0.06164777f, 0.18625009f, 0.14202859f, -0.14469600f, -0.36276108f, 0.07515434f, -0.20492485f},
    {-0.04592950f, -0.38167596f, 0.11258668f, 0.01078065f, -0.09975357f, 0.16898926f, -0.20836215f, -0.13878565f, -0.20593163f, 0.11652400f, 0.31901804f, -0.09575984f, 0.30632800f, 0.03101502f, -0.05620736f, 0.04809862f, -0.01245675f, 0.10355962f, 0.13566628f, -0.27559698f, -0.05868503f, 0.16827886f, -0.13888878f, 0.07077211f, -0.00496117f, 0.02987908f, -0.16125518f, 0.05249472f, 0.09793188f, 0.08451148f, -0.07675420f, -0.09765777f},
    {-0.02923972f, 0.20758896f, -0.16506168f, 0.19596839f, 0.37926653f, 0.02834401f, 0.25304478f, -0.02513031f, 0.04158761f, -0.09651405f, 0.04294080f, 0.00534146f, -0.01264410f, -0.13916618f, -0.33928594f, -0.03613746f, 0.02121158f, 0.11548260f, -0.11542619f, 0.09256099f, -0.09293717f, 0.03326499f, -0.07124804f, 0.16804831f, -0.11882369f, -0.33114469f, 0.15002865f, 0.07858425f, -0.08097225f, -0.15732016f, 0.05310959f, 0.10840195f},
    {0.16235909f, -0.30275577f, -0.02371188f, -0.11421032f, -0.24858254f, -0.39714822f, 0.18468802f, 0.42115918f, -0.81080574f, -0.29007027f, -0.07513348f, 0.05594566f, 0.09605208f, 0.11591006f, -0.07270323f, -0.05837116f, -0.36740464f, 0.11619326f, -0.15469152f, -0.03727825f, 0.06993152f, -0.13189076f, 0.08042634f, 0.24564008f, 0.02269931f, -0.21985483f, -0.21799332f, 0.31228018f, 0.28474823f, 0.21497293f, -0.08050739f, -0.05190655f},
    {-0.18198498f, -0.03801925f, 0.00239663f, 0.15978819f, -0.20530838f, 0.12934177f, -0.00444797f, -0.69590086f, -0.20038246f, -0.06859980f, -0.12371524f, 0.08176707f, -0.45758852f, -0.11636704f, -0.15074334f, 0.09692511f, 0.26391274f, -0.01648658f, -0.03852570f, 0.14865890f, -0.04722041f, 0.06504551f, -0.40699485f, 0.25431126f, 0.27843174f, -0.24644160f, -0.00504965f, 0.05046424f, 0.20235690f, 0.09000970f, 0.14511843f, -0.44662166f},
    {0.07027019f, -0.12198050f, 0.12574683f, -0.09602792f, -0.44474912f, 0.08222477f, -0.13838840f, -0.15242895f, -0.17139240f, -0.01512338f, 0.06823134f, 0.08273537f, 0.17268251f, -0.11116288f, -0.14337419f, -0.15929371f, 0.04688090f, -0.04315497f, 0.09536977f, 0.07565127f, 0.13261734f, 0.21562235f, 0.05293851f, 0.17729400f, 0.23592949f, 0.05864557f, -0.13395083f, -0.01160697f, 0.07359056f, -0.30838954f, -0.07053521f, 0.09884098f},
    {-0.26048046f, 0.38501811f, -0.03079027f, 0.24901667f, -0.12013353f, 0.09887170f, -0.02424238f, 0.23832975f, 0.05577749f, 0.11696575f, -0.13772792f, 0.09305774f, 0.28490499f, -0.26190990f, 0.01552766f, 0.24148168f, -0.05213836f, 0.09767552f, 0.07518378f, 0.49066120f, -0.06222079f, -0.35276374f, -0.02155165f, 0.14834474f, 0.16126646f, -0.03852117f, -0.04598235f, -0.23104498f, 0.20773546f, 0.14339957f, 0.06870341f, 0.29697570f},
    {0.13668644f, 0.05065301f, -0.25123802f, -0.36937973f, -0.22047745f, -0.10398002f, 0.26995820f, 0.08778458f, 0.11504876f, -0.20987155f, -0.02233461f, 0.04107675f, 0.18425827f, -0.15317237f, 0.01570294f, 0.03036480f, -0.16592254f, -0.04700226f, -0.21511263f, 0.07089324f, 0.23770361f, 0.17557111f, 0.23962347f, -0.02742880f, 0.28223491f, -0.04996477f, -0.19933712f, -0.05531664f, 0.21895826f, 0.17159466f, 0.03224734f, 0.33202443f},
    {-0.09199996f, -0.19174455f, -0.23076177f, -0.07904426f, -0.11781727f, 0.31702924f, -0.48386550f, -0.29621479f, 0.24995658f, 0.27698165f, 0.27945763f, -0.08992994f, -0.46143329f, 0.10190216f, 0.13098569f, -0.00175972f, -0.26998827f, -0.29050970f, -0.12296467f, -0.04972422f, -0.12042601f, 0.08870369f, -0.09033188f, 0.04484523f, -0.02275173f, 0.03491974f, -0.25674358f, 0.02278267f, 0.03472343f, -0.09926606f, 0.00210350f, 0.08980158f},
    {0.01876723f, -0.00096177f, 0.06235744f, -0.01984846f, -0.25840858f, 0.09400449f, 0.24156594f, -0.20946422f, -0.17857009f, -0.06665981f, -0.03707130f, -0.25089809f, -0.05988222f, 0.12350561f, -0.17495425f, -0.16892987f, -0.33176735f, 0.17456658f, -0.02096659f, -0.18479285f, 0.08257444f, -0.16133988f, 0.27597880f, -0.02330992f, 0.31061360f, -0.34142855f, -0.20070010f, 0.05130276f, -0.01477390f, 0.07895902f, 0.39042240f, 0.09303147f},
    {0.27927080f, 0.23088849f, 0.12252288f, 0.31981850f, -0.05581686f, 0.01698398f, -0.03953600f, -0.12180039f, -0.10742318f, 0.02316207f, -0.04459016f, 0.10744976f, 0.10242377f, 0.47744015f, -0.16233416f, -0.18814515f, -0.24565199f, -0.03922971f, 0.35320771f, 0.15338024f, 0.07184892f, 0.09237724f, -0.11476563f, 0.08833874f, 0.09278180f, 0.48350024f, -0.05940146f, -0.12121891f, -0.29825541f, -0.24759299f, -0.00656984f, 0.40297967f},
    {-0.20963660f, 0.08958532f, -0.21967150f, -0.03189555f, -0.08346047f, -0.11876822f, -0.08130721f, 0.20930965f, -0.15557069f, 0.02254513f, 0.06142491f, 0.16097428f, -0.14780742f, -0.04800224f, 0.12581339f, 0.21842861f, 0.19657938f, -0.21644934f, 0.06088170f, -0.05517642f, 0.03924474f, 0.14247115f, 0.02267791f, -0.21704143f, -0.25033370f, 0.04553005f, 0.02497172f, -0.24985458f, 0.10593713f, 0.04847641f, -0.00216968f, 0.24407333f},
    {0.10388601f, 0.16620842f, 0.16902991f, 0.01528602f, 0.28467584f, -0.03645668f, 0.10349613f, -0.30389288f, 0.11652159f, 0.14590728f, 0.21879716f, 0.33897555f, -0.00723828f, 0.02684824f, -0.43527922f, -0.11614623f, -0.16026485f, 0.24548541f, 0.12321576f, 0.30634266f, -0.22604188f, -0.41415906f, 0.15722989f, 0.16534759f, 0.00420506f, 0.14650382f, -0.05162964f, -0.21264453f, -0.44371724f, -0.11134394f, -0.05632191f, -0.18213429f},
    {-0.76450950f, 0.21538369f, -0.16085434f, 0.27604911f, 0.07579392f, -0.08616687f, -0.12289389f, -0.38631240f, -0.07838683f, 0.19740590f, -0.31125805f, -0.11682414f, -0.04215720f, 0.06413139f, 0.33265752f, -0.50386149f, 0.13610896f, 0.20543317f, 0.16490921f, 0.23841454f, 0.26712924f, 0.13117726f, 0.12988077f, 0.31917492f, -0.07505352f, 0.01533011f, 0.10981788f, 0.41378167f, -0.54561436f, -0.28928524f, -0.00953443f, -0.20841414f},
    {-0.00179836f, -0.41241163f, -0.18119565f, -0.04032636f, -0.26830095f, -0.17294173f, -0.21844716f, 0.39421558f, -0.23796119f, -0.06873596f, -0.02445142f, -0.18412441f, -0.01834681f, -0.03780308f, 0.15715553f, -0.00870678f, 0.60742980f, -0.01955898f, 0.00138083f, 0.19981010f, -0.15404160f, -0.09623414f, 0.22642060f, 0.15225010f, 0.12511301f, 0.10238837f, 0.17940602f, 0.01322135f, 0.06754460f, -0.04319622f, 0.07245075f, -0.06676128f},
};

const float b1[32] = {-0.09641320f, -0.06377742f, 0.03363261f, -0.00437535f, -0.18777446f, 0.03211651f, -0.02986616f, -0.11926248f, 0.00094706f, 0.05944430f, -0.02619012f, 0.02801100f, 0.00651275f, 0.04255988f, -0.01341702f, -0.03255780f, -0.10714068f, 0.09337081f, 0.00925150f, 0.01236924f, -0.09834068f, 0.02908182f, -0.11962190f, -0.06661834f, -0.00802933f, 0.02920252f, -0.05791429f, 0.00561914f, 0.04215679f, -0.00514247f, 0.00417949f, -0.04297537f};

const float W2[32][16] = {
    {0.27599218f, -0.08437330f, -0.67762679f, -0.19955765f, -0.09636504f, -0.46801722f, 0.14730024f, 0.38737625f, 0.34178954f, -0.26223636f, 0.29491347f, 0.49448848f, -0.00005163f, -0.86080104f, 0.15251973f, 0.40662214f},
    {0.35801554f, -0.18385914f, 0.08655253f, -0.25961971f, -0.06821264f, 0.17490764f, 0.47369343f, 0.02882662f, 0.10456289f, -0.03374719f, -0.17543586f, -0.36428246f, -0.39577183f, -0.19668014f, -0.04165106f, 0.30442190f},
    {0.24802889f, -0.43905443f, 0.08543745f, -0.23932254f, -0.13302325f, 0.18040997f, 0.33897713f, -0.17447741f, -0.39740875f, 0.26167840f, 0.27637571f, -0.21546306f, 0.30800852f, 0.09369943f, -0.05831955f, 0.50272417f},
    {-0.03718656f, -0.33236533f, 0.03768754f, 0.03644514f, 0.36700162f, 0.36089191f, -0.04125602f, -0.12256040f, 0.20675848f, -0.14352775f, 0.36609069f, 0.36540410f, 0.66470045f, -0.03904333f, 0.26092771f, 0.53453481f},
    {0.40742078f, -0.26815552f, -0.23169233f, 0.11230592f, -0.41617441f, -0.04564707f, 0.00662389f, 0.66187632f, 0.39385873f, -0.23660736f, 0.26048383f, 0.16337869f, -0.24931744f, 0.13377269f, -0.24750778f, 0.15672185f},
    {0.05754226f, -0.00349647f, 0.38516703f, -0.31570438f, 0.11467018f, 0.00654267f, 0.12192126f, 0.00933509f, 0.10954569f, 0.23795581f, -0.25778478f, 0.09730534f, 0.21462663f, 0.13173451f, 0.37051058f, -0.28491920f},
    {-0.19529299f, -0.22596076f, -0.19668640f, -0.15389141f, 0.13058749f, -0.32558972f, 0.35269135f, 0.19106741f, -0.01344802f, -0.09012881f, -0.07053161f, 0.38587403f, 0.12970221f, 0.01087943f, -0.09168319f, 0.24577214f},
    {0.14523649f, -0.48468095f, 0.13342658f, 0.18661138f, -0.02052104f, -0.30341694f, -0.71967202f, 0.16392455f, -0.74289304f, -0.07852212f, 0.13479865f, -0.07855789f, -0.01464601f, 0.64541256f, 0.13088709f, 0.08975554f},
    {-0.04294821f, -0.19386013f, 0.22375938f, 0.12495230f, -0.03171545f, 0.07383335f, -0.21489596f, 0.04830688f, -0.29319498f, -0.30915725f, -0.10255008f, -0.38212955f, 0.35114527f, 0.03622560f, 0.31581408f, 0.09072255f},
    {-0.33424371f, -0.15713495f, 0.17371726f, 0.12115971f, 0.34231621f, 0.25164333f, -0.40699568f, -0.14306857f, -0.17712177f, -0.00091945f, 0.31824762f, 0.05709139f, 0.03264283f, -0.35130212f, -0.24044171f, -0.18547200f},
    {0.36914957f, -0.06344684f, -0.31859076f, -0.12591705f, 0.13932115f, 0.08237449f, 0.07975518f, 0.00346658f, -0.33947495f, 0.17257880f, 0.05258612f, 0.29865673f, -0.05979649f, -0.13136232f, -0.05242009f, -0.40431446f},
    {0.22623138f, -0.55856693f, 0.21512368f, -0.05400579f, 0.16658561f, -0.06088429f, -0.22543834f, -0.62435043f, 0.26358488f, 0.12090405f, 0.37099683f, -0.23173559f, 0.05899980f, -0.15532906f, -0.66609246f, -0.10537431f},
    {0.04494197f, 0.17288224f, 0.18862554f, 0.15512733f, -0.17919865f, -0.04061615f, 0.05822972f, -0.35229519f, -0.40608841f, -0.27469966f, -0.15231949f, 0.26585037f, 0.22573195f, 0.34640250f, -0.11927723f, 0.31426850f},
    {0.31619990f, -0.83398587f, 0.34791797f, -0.19015481f, 0.07999060f, 0.31496590f, 0.29607946f, 0.27812281f, 0.31825793f, 0.11175033f, -0.37092623f, 0.14552663f, -0.59431791f, -0.19569874f, -0.36878893f, -0.32476178f},
    {0.02875492f, 0.30861601f, -0.16583450f, -0.26730970f, 0.24388465f, -0.34807777f, 0.01659063f, -0.44009721f, -0.35698658f, -0.00218827f, -0.49557221f, 0.12338778f, -0.04100310f, 0.10023490f, -0.24379052f, -0.63455695f},
    {0.21341230f, 0.13190936f, -0.08240229f, -0.05467875f, -0.44902569f, -0.17813933f, -0.18218678f, 0.10496168f, -1.00802255f, 0.16743384f, -0.22748178f, 0.26548833f, 0.22506230f, -0.35904929f, -0.18448271f, 0.54918712f},
    {-0.09203141f, 0.04977674f, 0.19218653f, 0.17976940f, 0.10942016f, 0.52125460f, -0.32039088f, -0.68269664f, 0.03292110f, 0.40565616f, 0.08141995f, -0.18245500f, 0.03801018f, 0.45881534f, 0.19766599f, 0.22420794f},
    {0.14161512f, -0.01256905f, -0.13135627f, -0.19609317f, -0.22895500f, -0.19888586f, 0.42611548f, -0.29917726f, -0.34811369f, 0.23311649f, 0.28467214f, -0.18002065f, -0.02420266f, 0.06702890f, -0.11703512f, -0.34213758f},
    {0.10714453f, -0.95138371f, 0.27809873f, 0.07629243f, 0.01975410f, -0.11547745f, -0.40461138f, -0.42626488f, 0.26544702f, 0.28349370f, -0.27996281f, 0.15790707f, -0.26372185f, 0.08113865f, -0.37588763f, 0.07782516f},
    {-0.20850475f, -0.66108382f, 0.22050589f, 0.21641570f, -0.08035537f, -0.24424769f, 0.44332528f, -0.42857951f, 0.23276962f, 0.15855432f, -0.22572452f, -0.37291867f, 0.14608882f, 0.02999206f, -0.96628278f, 0.08390267f},
    {-0.00264959f, -0.11472557f, -0.08459505f, 0.12759401f, 0.20193239f, -0.22950064f, -0.13955410f, -0.23732959f, 0.07923851f, 0.39912066f, 0.14563282f, 0.08561680f, 0.25807911f, 0.27392551f, 0.12948780f, 0.33564746f},
    {-0.04634658f, -0.01921582f, -0.56735933f, -0.37969452f, -0.18619588f, -0.17987923f, 0.37085673f, 0.08073431f, -0.19032429f, 0.01860554f, -0.28335869f, 0.07243562f, -0.38611603f, 0.34931397f, -0.47621641f, -0.17438740f},
    {-0.17412247f, -0.21866176f, 0.31339633f, -0.15855411f, 0.06967735f, 0.28898236f, -0.28594157f, 0.03498126f, -0.30411971f, -0.12167759f, 0.20858502f, 0.24893682f, 0.13667722f, 0.33128121f, 0.27323803f, 0.08699318f},
    {0.22371942f, -0.27865005f, 0.36862236f, -0.32934350f, -0.06939717f, 0.32397872f, -0.10667496f, 0.25000095f, -0.36210337f, -0.04626777f, -0.11928108f, -0.25063011f, -0.28199822f, 0.14035696f, -0.28662568f, 0.08490540f},
    {0.11393720f, -0.05001321f, -0.27332959f, -0.11482018f, -0.06253006f, -0.32819203f, 0.41366699f, -0.04388300f, 0.13684207f, 0.18389505f, 0.31074846f, 0.33422393f, 0.26270911f, -0.15885741f, 0.05129417f, 0.12025766f},
    {-0.36150685f, -0.72118974f, 0.02207832f, 0.11804166f, 0.41842476f, 0.08457530f, -0.08765873f, 0.35297200f, 0.34123069f, 0.16580063f, -0.15558873f, -0.13949329f, -0.41034234f, 0.11287428f, -0.01277567f, 0.10009631f},
    {0.13950083f, -0.24180797f, -0.23506388f, -0.14329940f, 0.00250566f, -0.11316536f, 0.18641782f, 0.20472895f, 0.31637934f, 0.13810630f, -0.27448812f, 0.01766855f, -0.07190121f, 0.23712261f, -0.33504838f, 0.23302568f},
    {-0.22286841f, 0.15804066f, -0.12244054f, 0.05140287f, -0.06266115f, -0.00780701f, 0.33626723f, 0.25941303f, -0.33242151f, 0.04430726f, 0.17735821f, 0.02082679f, -0.13524313f, 0.13173865f, 0.23318434f, -0.86615938f},
    {-0.06989682f, 0.19769120f, 0.20501290f, -0.17672348f, 0.08297113f, 0.20102897f, -0.15563948f, 0.02028977f, -0.90740359f, 0.36583647f, 0.27037749f, -0.24679868f, -0.19009200f, -0.56842500f, -0.00778066f, 0.04318999f},
    {-0.23327710f, 0.23045972f, 0.28102773f, -0.01636322f, 0.40754518f, 0.01989574f, -0.43558431f, -0.09065364f, 0.09360522f, 0.08816469f, 0.27604768f, 0.01148416f, 0.07681607f, -0.55265379f, 0.30717576f, -0.17741470f},
    {-0.02005418f, 0.26970723f, -0.12775634f, 0.10069555f, -0.15346096f, -0.06096271f, 0.37099260f, -0.04530574f, -0.40677246f, -0.01714735f, 0.18894735f, 0.36539692f, 0.06147287f, -0.15116537f, 0.16764683f, 0.19731613f},
    {0.00030195f, -0.39589930f, 0.24254565f, 0.19085996f, 0.21708162f, 0.27682397f, -0.10509225f, 0.16307516f, 0.27837300f, -0.29639381f, 0.20564002f, 0.31329891f, 0.04011410f, 0.07908434f, -0.25013831f, -0.18493100f},
};

const float b2[16] = {0.00364235f, -0.04732046f, 0.12053524f, -0.01354535f, 0.15368576f, 0.01941098f, 0.04790280f, 0.04532318f, 0.02698777f, -0.02845612f, -0.00726898f, 0.03017990f, -0.08130953f, 0.08130738f, 0.01764599f, -0.12360504f};

const float W3[16][1] = {
    {-0.07224581f},
    {-0.31957024f},
    {0.22189502f},
    {0.00090554f},
    {0.39150983f},
    {0.13640402f},
    {-0.25166786f},
    {-0.40683216f},
    {0.84260529f},
    {0.04213584f},
    {-0.18396105f},
    {-0.16217382f},
    {-0.24220215f},
    {-0.22802104f},
    {-0.14183927f},
    {-0.73489279f},
};

const float b3[1] = {0.05371274f};

#endif